svm_type c_svc
kernel_type rbf
gamma 1
nr_class 2
total_sv 12
rho 8.7626601255525483
label 1 -1
probA -0.21719346368454132
probB 0.060072772278556459
nr_sv 6 6
SV
33.863413769294567 1:0.774 2:0.376 
6.2195868183100504 1:0.634 2:0.264 
100 1:0.556 2:0.215 
100 1:0.403 2:0.237 
100 1:0.481 2:0.149 
100 1:0.437 2:0.211 
-13.185586722846123 1:0.666 2:0.091 
-26.91102539500082 1:0.243 2:0.267 
-99.986388469757671 1:0.343 2:0.099 
-100 1:0.639 2:0.161 
-100 1:0.657 2:0.198 
-100 1:0.36 2:0.37 
