svm_type c_svc
kernel_type rbf
gamma 0.10000000000000001
nr_class 2
total_sv 14
rho 1.8621563911437811
label 1 -1
probA 0.90414062157898434
probB 0.48004408225900697
nr_sv 7 7
SV
44.610717440918805 1:0.774 2:0.376 
100 1:0.634 2:0.264 
100 1:0.608 2:0.318 
100 1:0.556 2:0.215 
100 1:0.403 2:0.237 
100 1:0.481 2:0.149 
100 1:0.437 2:0.211 
-100 1:0.666 2:0.091 
-100 1:0.243 2:0.267 
-44.610717440918826 1:0.343 2:0.099 
-100 1:0.639 2:0.161 
-100 1:0.657 2:0.198 
-100 1:0.36 2:0.37 
-100 1:0.719 2:0.103 
