svm_type c_svc
kernel_type rbf
gamma 100
nr_class 2
total_sv 13
rho 0.14249720244693209
label 1 -1
probA -2.2183706723592822
probB -0.10375515065722503
nr_sv 6 7
SV
0.88355217592873136 1:0.697 2:0.46 
0.83475817234512328 1:0.774 2:0.376 
2.3043596316420669 1:0.634 2:0.264 
0.64610680040454571 1:0.556 2:0.215 
1.156812408476092 1:0.403 2:0.237 
0.8198686055784089 1:0.481 2:0.149 
-0.83044825818299328 1:0.243 2:0.267 
-0.57304639992623474 1:0.245 2:0.057 
-0.87093397842519171 1:0.343 2:0.099 
-2.4443105675412173 1:0.657 2:0.198 
-0.9507280483665107 1:0.36 2:0.37 
-0.8077721352939935 1:0.593 2:0.042 
-0.16821840663882687 1:0.719 2:0.103 
