svm_type c_svc
kernel_type rbf
gamma 0.001
nr_class 2
total_sv 16
rho 0.96768832206726074
label 1 -1
probA 1.9150111410010637
probB -0.28784144062459388
nr_sv 8 8
SV
100 1:0.697 2:0.46 
100 1:0.774 2:0.376 
100 1:0.634 2:0.264 
100 1:0.608 2:0.318 
100 1:0.556 2:0.215 
100 1:0.403 2:0.237 
100 1:0.481 2:0.149 
100 1:0.437 2:0.211 
-100 1:0.666 2:0.091 
-100 1:0.243 2:0.267 
-100 1:0.343 2:0.099 
-100 1:0.639 2:0.161 
-100 1:0.657 2:0.198 
-100 1:0.36 2:0.37 
-100 1:0.593 2:0.042 
-100 1:0.719 2:0.103 
