svm_type c_svc
kernel_type rbf
gamma 10
nr_class 2
total_sv 7
rho 2.4635656868042757
label 1 -1
probA -0.88868292049462172
probB -0.10878296972446029
nr_sv 4 3
SV
4.4076073486743423 1:0.774 2:0.376 
19.812430311542464 1:0.634 2:0.264 
5.5337867347730816 1:0.403 2:0.237 
16.15550684392203 1:0.481 2:0.149 
-9.3820033387642567 1:0.343 2:0.099 
-29.206378430977487 1:0.657 2:0.198 
-7.3209494691701682 1:0.36 2:0.37 
